-0.224769481659399,0.212500052716514,-0.161740144426208,-0.339049126031017,0.516482878394129,-0.445664988462031,-0.292024716728507,-0.429068949057833,-0.371142754558736,-0.107066801374605,0.218268033493482,-0.422385963173335,0.33380945658907,0.221101902877865,0.37583234233386,-0.469841286696494,-0.326343153367347,0.0260925286437246,-0.156643147084099,-0.0192025221395429,-0.214415182911795,0.0712764945360222,0.352240741574848,-0.379536610209245,-0.370308837870389,-0.0392406231361384,0.162351194887445,-0.35306076911874,0.0703595168916887,0.0660355945375679,0.351937658161582,-0.364069876321739,-0.0944968242073484,0.329572339058972,-0.108206032334578,-0.48599313253832,-0.335582070410769,-0.0329126116779315,0.475429224878357,0.307706929644507,0.217470013029563,-0.252499918261315,-0.300972716841383,-0.107379331216791,-0.113311781976727,-0.344773208223904,-0.143364509755363,-0.205102343146799,-0.0751355558888077,0.0593381848744586,0.133010579710331,-0.000980199590166446,-0.24042535633165,-0.00686971549688684,0.37123597297329,0.46439504134549,0.413518897510681,0.340736454549103,-0.222794829458265,0.205836970724716,0.392176803369099,0.221453052582663,0.48242120195162,0.50578505795159,-0.531968200872519,0.397404303379489,0.563414245326771,0.266689524603811,0.221974451090647,0.177498933657318,-0.01511566474007,0.938703075831902,-0.173834918568027,0.534597099531928,0.390423272484625,0.457390642339731,-0.0532982055524265,-0.0234761868723088,-0.320718931144358,-0.739588313850686,-0.159362952638213,-0.141936280859091,
